"[[[[ 1.02368847e-01  1.07510693e-01 -4.71404493e-02  1.18511625e-01
     1.81204095e-01 -6.96267933e-02 -3.26647237e-02  5.71611673e-02
    -7.92403445e-02 -5.29229455e-02 -1.26731664e-01  3.35842706e-02
     4.16218713e-02 -1.01343133e-01 -7.42776766e-02  6.61937147e-02
    -1.32218808e-01  5.36118411e-02  3.89782004e-02  1.94103956e-01
    -4.24979068e-02 -1.30269021e-01  7.53160892e-03 -1.50400072e-01
     1.30504891e-01 -1.04382217e-01  2.07340822e-01 -2.59526409e-02
    -1.21402450e-01  3.43788676e-02 -1.58405066e-01 -1.53466463e-01]]

  [[-8.17970335e-02  1.32928729e-01 -4.42750715e-02  1.31027237e-01
     1.13152482e-01  1.06642261e-01  1.91300899e-01  7.82958642e-02
    -1.87358439e-01  7.67845809e-02  5.97492754e-02  1.62143156e-01
    -7.97586888e-02  8.25469047e-02 -3.78767177e-02  1.35639861e-01
     1.21182427e-01 -5.04084267e-02  5.60413226e-02  8.76486972e-02
    -1.44606726e-02 -1.23988867e-01  9.29559097e-02  3.10204104e-02
    -1.13621503e-01 -2.16966402e-02  1.02285065e-01 -1.09996282e-01
     1.07306235e-01  1.17014199e-01 -8.31918865e-02 -4.56480458e-02]]

  [[-1.29138187e-01  7.22497627e-02  1.67552233e-01 -8.75396430e-02
    -7.86675140e-02  8.40787813e-02 -6.24775700e-02 -1.61822468e-01
     1.47115842e-01  1.42392546e-01 -1.76739633e-01  1.31788045e-01
    -1.83633044e-01 -2.27586323e-04  9.33080390e-02  1.75867468e-01
    -1.12806380e-01  9.98551473e-02 -1.08318217e-01 -3.01763769e-02
    -1.51047140e-01  1.23043098e-01 -1.81114614e-01  7.37983659e-02
    -2.50755493e-02  3.92458662e-02 -7.28621557e-02 -1.26749769e-01
     7.74723962e-02  8.29004645e-02 -3.04218754e-02  1.57194972e-01]]]


 [[[-5.38318157e-02  1.44735709e-01 -1.48913622e-01  4.98032719e-02
     1.05545834e-01 -1.56853721e-01  6.15103915e-03 -9.11319852e-02
    -1.77384213e-01 -1.45774350e-01  1.84147403e-01 -1.44263759e-01
     1.19997211e-01  1.72130212e-01  1.60590857e-01  1.27841845e-01
    -4.11694422e-02 -6.31108731e-02 -1.69072509e-01  1.84567735e-01
    -6.84568956e-02 -1.29848242e-01 -2.01281860e-01 -7.27539435e-02
     1.21491633e-01  1.35014057e-01  1.86853975e-01 -2.86695287e-02
    -9.60255787e-02 -6.10579550e-02 -2.06576690e-01  5.36687300e-02]]

  [[ 9.12104920e-02  3.88194285e-02  2.62689274e-02 -1.02942221e-01
    -1.02659523e-01  1.83287114e-01  1.59961239e-01  8.17166176e-03
     9.01574790e-02 -3.90850678e-02  1.63388997e-01  1.59767419e-01
    -2.99690664e-02  6.72044605e-02  1.61047310e-01 -7.94017240e-02
     1.90635428e-01 -7.50855803e-02 -9.51528698e-02  1.74573049e-01
    -9.86007154e-02 -5.93057573e-02  1.73061967e-01  1.87207654e-01
    -4.93188798e-02  2.01926276e-01 -1.72057286e-01  2.83654965e-02
     6.71194792e-02  5.72017096e-02 -9.88627039e-03 -1.97857246e-01]]

  [[-1.80680379e-01  1.67195603e-01 -8.84831250e-02 -2.04505950e-01
    -4.11240347e-02  6.18892722e-02 -1.44567579e-01 -8.59389827e-02
     1.55802608e-01  9.33246985e-02  5.76886423e-02  1.85064331e-01
     1.60228774e-01  7.12557733e-02  9.04694274e-02  1.76321361e-02
     1.15583487e-01 -1.50536418e-01 -9.35662165e-02  1.69856787e-01
     1.53484702e-01  2.07268342e-01  8.20866078e-02  6.91081360e-02
    -1.39260381e-01  6.87597841e-02 -1.90441281e-01 -2.71794712e-03
     1.89791650e-01  8.91695172e-02  5.65914437e-02 -7.20997155e-02]]]


 [[[-1.64177135e-01  6.44734055e-02  1.67947620e-01  1.33467212e-01
    -1.92282647e-01 -3.90989929e-02 -1.23986140e-01  7.86220208e-02
    -5.02531938e-02 -1.63120106e-01 -3.57751437e-02 -1.58350561e-02
    -7.74181681e-04  1.58819541e-01  2.95368265e-02  1.39957502e-01
     9.72145721e-02 -1.09634884e-01 -5.89030124e-02  1.79334134e-01
     2.01715901e-01 -5.29781356e-02 -8.94163363e-03  5.65802380e-02
     2.08956778e-01  1.81924134e-01  2.31706332e-02 -1.28552496e-01
    -1.22866500e-02 -1.52883023e-01  1.13179035e-01  2.26246589e-03]]

  [[ 1.60897188e-02  1.63953945e-01  5.37217930e-02  4.98918705e-02
     1.56183854e-01 -1.01042867e-01 -1.60013698e-02 -5.03622852e-02
    -5.03992243e-03  4.79105562e-02  9.95714590e-02  1.88538924e-01
     1.56951964e-01  1.16842344e-01 -1.21452566e-02  1.22364171e-01
    -2.19111349e-02  2.62511149e-02 -1.30295575e-01  1.21899741e-02
     3.03241964e-02  1.15801834e-01 -1.01899318e-02  7.81411752e-02
    -2.24630516e-02  3.43699306e-02 -1.36307120e-01  9.38244257e-03
    -1.56469330e-01 -7.78844357e-02  2.15132296e-01 -1.20929316e-01]]

  [[-1.10885166e-01  1.05608426e-01 -9.06352326e-02 -1.34315416e-01
     1.23950146e-01  1.84315622e-01 -1.53868109e-01  1.68038681e-01
     1.83466092e-01  2.05131266e-02 -2.06684977e-01  1.15748025e-01
     9.89454389e-02 -6.72293901e-02 -9.69137158e-03  1.51349604e-01
    -1.98550612e-01 -1.09721258e-01 -4.65014502e-02  1.17381051e-01
    -3.46013485e-03  8.90911542e-05  1.13498464e-01 -1.97735980e-01
    -1.81096926e-01  7.89226219e-02  4.97055845e-03 -3.50530259e-02
    -1.42942416e-02 -8.73808190e-02  1.68260679e-01 -1.27990901e-01]]]]"
"[ 0.01575772  0.05100399  0.00241929  0.04632989  0.02420918  0.04380919
  0.02749145  0.01958063  0.03877825  0.03317455  0.04023314  0.0680233
  0.06941193  0.04500919  0.05834045  0.05364271  0.02317026  0.02590761
  0.00549618  0.05372594  0.00882695  0.02740233  0.04167674  0.03906034
  0.033891    0.06152638  0.05466643 -0.0100131   0.03516908  0.03190774
  0.05581078  0.02621838]"
"[[[[-1.95489917e-02 -1.10756420e-02  7.03541748e-03 ...  2.53588706e-02
    -6.32771030e-02  1.12898163e-02]
   [-5.65301031e-02  6.58826903e-02 -1.16015933e-02 ...  5.14771603e-02
    -7.87513405e-02 -2.79591475e-02]
   [ 2.89589353e-02  1.01077080e-01 -4.99227736e-03 ...  1.24771588e-01
     5.50351962e-02 -5.50728962e-02]
   ...
   [ 1.09288380e-01  9.85548049e-02  5.49859926e-02 ...  4.09604311e-02
     7.50985462e-03  2.70829443e-02]
   [-4.97976728e-02 -8.09362456e-02  3.43780071e-02 ...  9.76643758e-04
     2.73839235e-02 -2.71424511e-03]
   [ 1.07604349e-02  4.01095748e-02 -1.17556108e-02 ... -5.94043732e-02
     5.64070605e-02 -2.92176753e-02]]

  [[ 1.40615748e-02  5.97410370e-03  1.03264777e-02 ... -1.91705732e-03
    -3.56372036e-02 -6.74928911e-03]
   [ 6.21273071e-02  6.35640547e-02  3.25926244e-02 ... -3.54687199e-02
     5.71259037e-02 -4.00116667e-02]
   [-5.36256805e-02  2.91536152e-02  2.36149132e-02 ...  4.81925607e-02
    -3.49930413e-02  4.12601531e-02]
   ...
   [-2.05133166e-02  4.76248674e-02 -4.35315184e-02 ...  1.48049686e-02
     6.73356578e-02  4.91171181e-02]
   [ 5.08797430e-02 -6.77886382e-02  5.97307459e-02 ...  1.92712825e-02
    -5.53735569e-02 -1.40423537e-04]
   [-1.87479481e-02  4.06789742e-02 -5.79724312e-02 ... -2.52765771e-02
    -7.17150792e-02 -3.47936377e-02]]

  [[-2.64511406e-02 -1.49712767e-02  1.36162629e-02 ...  3.12925652e-02
     1.71560422e-02  9.01452079e-03]
   [-2.03898493e-02 -9.58172022e-04 -7.57136941e-02 ... -8.82018358e-02
    -7.93175586e-03  7.74033070e-02]
   [-3.13801058e-02  7.75399208e-02  4.93517891e-02 ...  3.67569141e-02
    -2.47643981e-02  2.24264245e-02]
   ...
   [ 3.21182571e-02  1.79366507e-02  4.44311835e-02 ... -9.32866614e-03
    -4.05427031e-02  3.38887237e-02]
   [ 5.95947392e-02  2.62989625e-02  5.29896170e-02 ... -7.40663484e-02
     1.07070319e-01  4.20907997e-02]
   [ 1.96662303e-02 -3.17074247e-02 -8.15921500e-02 ...  6.87826946e-02
    -6.66168481e-02 -8.20110738e-02]]]


 [[[ 6.78757299e-03  4.99150082e-02 -2.76777521e-02 ...  5.83594963e-02
    -1.24701392e-03  1.54993543e-02]
   [-5.57358153e-02 -8.69648065e-03  3.34769823e-02 ...  5.29724993e-02
    -1.65014714e-02  5.15881963e-02]
   [ 7.35227093e-02 -2.13743933e-02  1.23762442e-02 ...  4.59190309e-02
     7.06049576e-02 -1.65163632e-02]
   ...
   [-1.05114635e-02 -3.54982838e-02  3.81240696e-02 ...  4.59214635e-02
    -2.13179202e-03  5.55082317e-03]
   [ 9.71900765e-03  2.49146186e-02  6.84973523e-02 ... -6.54967725e-02
    -8.29835832e-02 -1.89492572e-02]
   [ 2.93624643e-02  5.27287945e-02  2.96476129e-02 ...  6.67630658e-02
    -1.24663766e-02  5.99864535e-02]]

  [[ 5.00515215e-02 -4.15433422e-02 -5.69264218e-02 ...  5.08840792e-02
    -7.85724670e-02 -2.13820674e-02]
   [ 8.09135567e-03 -7.85107166e-02  7.69520737e-03 ...  6.02551214e-02
     3.85828950e-02 -3.15164588e-03]
   [ 3.62549908e-02  2.01478079e-02 -1.37053411e-02 ... -6.29352480e-02
    -9.22105536e-02  8.41905922e-02]
   ...
   [ 6.72193244e-02  1.40068994e-03  6.27968386e-02 ... -1.28428554e-02
     5.52075095e-02  5.76713420e-02]
   [-2.62976643e-02  6.53015226e-02  2.38088835e-02 ... -2.00007632e-02
    -3.72030921e-02  5.49126454e-02]
   [-5.61205074e-02  4.94192280e-02  2.43195817e-02 ...  2.90208193e-03
    -3.58639322e-02 -5.75694442e-03]]

  [[ 2.12342050e-02  8.68840609e-03 -1.17309373e-02 ...  1.31948073e-05
     8.45528767e-03 -9.51152146e-02]
   [-1.96374189e-02  2.88804956e-02 -9.12479963e-03 ... -4.92564999e-02
     9.95381474e-02  6.04963712e-02]
   [-1.22283222e-02  7.78405741e-02 -1.47569496e-02 ... -4.08873782e-02
     7.82566238e-03  3.78449485e-02]
   ...
   [ 9.30504724e-02  4.01775204e-02 -1.75921731e-02 ...  8.53288546e-03
     2.00724248e-02  3.51984128e-02]
   [ 7.24179298e-03  1.56046245e-02  9.04470086e-02 ... -6.22847443e-03
     8.90051574e-02 -3.61895412e-02]
   [-4.25789617e-02  5.76686561e-02 -5.83126582e-02 ...  7.31708556e-02
    -9.82804447e-02  3.26237939e-02]]]


 [[[ 3.08210142e-02  6.69088289e-02 -2.46636365e-02 ... -4.39380849e-04
     1.48481755e-02 -2.09144205e-02]
   [ 2.17137635e-02  4.68636453e-02 -6.65874183e-02 ...  2.84376424e-02
    -8.91229231e-03 -2.33817939e-02]
   [-6.18208274e-02  1.82661694e-02  1.50248529e-02 ...  2.25242376e-02
    -1.18619790e-02  4.86135185e-02]
   ...
   [ 2.46416368e-02  5.66225313e-03  5.98396175e-02 ...  1.88393481e-02
     2.97624469e-02 -4.55551594e-02]
   [-6.83560967e-03 -4.53962609e-02 -4.52251472e-02 ... -7.11869970e-02
    -7.28493854e-02 -2.83399373e-02]
   [-2.70212069e-02  3.70947011e-02 -4.95785959e-02 ... -5.20449225e-03
     2.87692398e-02 -5.08808484e-03]]

  [[-3.36620137e-02 -4.70763817e-02 -4.71507199e-02 ...  1.28383730e-02
     4.50144485e-02  3.24374586e-02]
   [-6.79416358e-02 -4.10335064e-02 -5.67952469e-02 ... -7.49153197e-02
     6.26563728e-02  3.49089019e-02]
   [-7.22545460e-02 -1.70416590e-02  9.10014566e-03 ... -2.29455810e-02
     2.38180272e-02  1.32756624e-02]
   ...
   [-5.96489711e-03 -6.65446147e-02  2.82205865e-02 ...  1.69331934e-02
    -1.23064118e-02 -1.02693995e-03]
   [ 9.33150128e-02  3.05115078e-02 -2.71559879e-02 ...  6.15526661e-02
     7.77672008e-02  1.44428667e-02]
   [-4.97015417e-02 -6.88335579e-03  4.12340648e-03 ...  4.72831689e-02
    -2.69098463e-03  1.31826270e-02]]

  [[-2.37624794e-02 -7.84803927e-03  6.89051626e-03 ...  8.48890692e-02
     4.26512174e-02  8.56230035e-02]
   [-5.07461764e-02 -7.17906803e-02  4.63456959e-02 ...  4.15221117e-02
     4.68372144e-02 -1.63376722e-02]
   [-1.91845614e-02 -3.87818031e-02 -2.33060564e-03 ... -5.68614490e-02
     6.12188540e-02  1.58808138e-02]
   ...
   [ 2.69580819e-03  1.47367269e-02  1.30805140e-02 ... -1.04207918e-01
    -4.04261835e-02  4.82580923e-02]
   [ 4.89701405e-02  8.47317725e-02  6.46727011e-02 ...  1.09362364e-01
     5.41140772e-02  4.18079793e-02]
   [-3.43015254e-03  5.64758107e-02 -2.29808837e-02 ... -6.28668815e-02
    -2.95704883e-02  8.94783065e-02]]]]"
"[ 0.0205302  -0.00309716  0.02509825 -0.02507144  0.01341181  0.01942192
  0.02997395  0.00865401 -0.01720455 -0.02057264  0.00921104  0.00881546
 -0.0216799   0.00971871  0.00824654  0.01303272 -0.01587881 -0.03019386
 -0.01191878 -0.00246085 -0.00641561 -0.02161458  0.02204607  0.00481408
  0.01281935  0.01832358  0.00262183 -0.00466535  0.02981905  0.01245071
  0.00061995  0.03807641  0.02366045 -0.00499633  0.01395193 -0.00015769
  0.01848557 -0.00490815  0.00060619  0.01427719 -0.00126532  0.00901678
 -0.00891985 -0.00561801  0.01900212  0.00301349 -0.01551571  0.02110384
  0.03537903 -0.00672344 -0.00997619  0.00492625 -0.00025534  0.00588589
 -0.02076381  0.00832391  0.01823066  0.00665831  0.01555273  0.02382422
 -0.01264754 -0.00132145 -0.01515832  0.00345527  0.0058115   0.01002719
 -0.00379509  0.0091743   0.01045803 -0.00295222 -0.0069256  -0.01704491
  0.02590991  0.00774636  0.02165559  0.00872184 -0.00537406  0.00459972
 -0.01811206 -0.00209092 -0.01254763 -0.01488895  0.00231754 -0.03476366
 -0.03221816  0.00906418  0.02384057  0.00606976  0.03185164 -0.0106137
 -0.01492609  0.00810202  0.00869654 -0.00478322  0.01170134 -0.01029104
 -0.00022921  0.00770909 -0.01108757  0.02019947 -0.00380407  0.00419989
  0.0258979  -0.0196512   0.0023929   0.00443149 -0.01415111  0.00708106
 -0.00230513 -0.00343691 -0.00819694  0.01129659 -0.00166158 -0.00643572
  0.00746295  0.00848007 -0.01976612  0.00732817  0.00799005  0.006993
 -0.00372948 -0.02069698  0.02294406  0.0064958  -0.02556745 -0.02518645
  0.02286648  0.01483724]"
"[[[[ 0.01698331  0.04584544  0.04413508 ... -0.00099611  0.00819585
    -0.03110264]
   [-0.00733817  0.01251206 -0.00779473 ... -0.0413285   0.03418453
    -0.02149077]
   [-0.02999295 -0.04880613  0.02333685 ...  0.03161309  0.01931588
    -0.07434642]
   ...
   [ 0.01964983 -0.02142519  0.0440182  ...  0.03474958  0.01920686
     0.04663184]
   [-0.02579486 -0.0249532   0.04473604 ... -0.04207813 -0.00457896
    -0.01697409]
   [-0.06681308  0.0299656  -0.01974135 ... -0.04322133  0.02607719
     0.02693324]]

  [[-0.04570796  0.00908074  0.05783843 ...  0.03869446  0.01048679
    -0.02466401]
   [ 0.02898287 -0.03292052  0.05681227 ...  0.01713706 -0.02655962
     0.01076629]
   [ 0.03569502 -0.01076208 -0.00907219 ...  0.03027188  0.01305227
    -0.06758305]
   ...
   [-0.03262648  0.03415433  0.03149221 ... -0.03351567 -0.02768739
     0.01188798]
   [ 0.01634202  0.02412406 -0.02391362 ...  0.05417423 -0.01041244
     0.01645216]
   [-0.02872212  0.04903022 -0.03837598 ...  0.02347207 -0.02841615
    -0.01070162]]

  [[-0.02078326 -0.0323899   0.04621352 ...  0.03830625  0.00661913
    -0.04107271]
   [ 0.00351394 -0.00597788  0.02580294 ...  0.00326841 -0.00090633
    -0.03944619]
   [ 0.00410742 -0.01209907  0.01370367 ...  0.01939207  0.06651171
    -0.00160244]
   ...
   [-0.0062372   0.01757949 -0.01711961 ...  0.01358772  0.04325525
     0.00849883]
   [-0.02030915 -0.01960609 -0.05809101 ...  0.01473924 -0.00093868
     0.02337521]
   [ 0.03047415  0.02138685 -0.07848541 ... -0.01504965 -0.02670871
    -0.01408928]]]


 [[[ 0.02204844 -0.01447524  0.02771261 ... -0.01793175  0.03309421
     0.00487529]
   [-0.02700245  0.06146736 -0.01657864 ...  0.01903652  0.0008653
     0.00922367]
   [ 0.03707018  0.02440234  0.00763774 ... -0.00404357  0.02382175
    -0.03771311]
   ...
   [-0.05032721  0.02274809  0.02086448 ...  0.0086021  -0.02033386
    -0.0244595 ]
   [ 0.03540334 -0.01299064 -0.0174258  ... -0.00962131 -0.0374126
     0.03263397]
   [-0.00928663  0.02033337  0.01206656 ...  0.03024852  0.0331763
     0.04399312]]

  [[ 0.010082    0.01183903 -0.02040442 ...  0.03355821 -0.00358548
     0.04692314]
   [-0.03000656  0.01701264  0.01771771 ... -0.0354928   0.04743811
     0.03985   ]
   [-0.02904706  0.00072004  0.03446968 ... -0.0232536  -0.01548917
    -0.00212994]
   ...
   [-0.02274902  0.03983697  0.0180372  ...  0.01161533  0.04184262
     0.05300616]
   [-0.00136224  0.02883965  0.01365285 ...  0.01023433  0.01401306
    -0.01034821]
   [-0.01935845  0.04776011 -0.03566005 ... -0.03436109 -0.0089203
     0.02256091]]

  [[ 0.03669449  0.03648911  0.05318838 ...  0.03444928  0.00193723
    -0.01611368]
   [-0.01400639  0.01605527 -0.01166023 ...  0.00951858 -0.03765168
     0.00638443]
   [ 0.04875538 -0.03540498  0.05134295 ...  0.0452399   0.08275737
    -0.06975766]
   ...
   [ 0.00480374  0.01744122 -0.03049929 ... -0.02495941 -0.01267905
    -0.02059834]
   [-0.01544699  0.02157575  0.02121838 ... -0.03804541 -0.00646066
    -0.04126331]
   [-0.00606634 -0.02825304 -0.00055755 ... -0.05181223  0.00821228
     0.04060644]]]


 [[[-0.02836937  0.01575788  0.0094888  ...  0.03315836  0.01052517
    -0.00307464]
   [-0.04283996  0.02102349 -0.02697712 ...  0.02626832  0.02018224
    -0.02423709]
   [ 0.01371018  0.03119773  0.02334327 ... -0.03620832  0.00071452
     0.01892888]
   ...
   [ 0.01603192  0.01436724 -0.03906364 ...  0.01404424 -0.01699756
     0.01041523]
   [ 0.02926983  0.04169487 -0.0340158  ... -0.02689924 -0.01286067
    -0.03344677]
   [-0.00501194  0.00154633 -0.05262507 ... -0.01367333  0.02598119
    -0.02202415]]

  [[ 0.02127457  0.00097954 -0.0147749  ...  0.00490533  0.02309803
    -0.00505423]
   [ 0.05106457  0.02332804  0.02207779 ... -0.01648475 -0.01610233
     0.00346881]
   [-0.04086657  0.01264095 -0.00473238 ...  0.04511185  0.00413985
    -0.00674532]
   ...
   [ 0.03583258 -0.01387585  0.03680338 ... -0.06161625  0.00116234
    -0.01126775]
   [-0.02363171 -0.01839088 -0.00646642 ...  0.03609939  0.02105564
     0.01134901]
   [-0.03287148 -0.00990276 -0.03483807 ... -0.01577075 -0.00411667
     0.02505712]]

  [[ 0.00057606 -0.01284019  0.05245509 ...  0.01902209 -0.05264723
     0.02707102]
   [ 0.02623499 -0.00206911 -0.00659534 ...  0.00397308 -0.05300933
     0.02704706]
   [ 0.03846824  0.05443462  0.03131228 ...  0.03109661  0.01398908
    -0.03004292]
   ...
   [ 0.01635999 -0.04086139  0.00325784 ... -0.03784461 -0.03502161
    -0.03382945]
   [ 0.00433323  0.01760757  0.02710934 ... -0.04753437  0.02391479
    -0.03533597]
   [ 0.01946674  0.03126785 -0.04550295 ... -0.03061498 -0.00898952
    -0.0253295 ]]]]"
"[ 1.25708627e-02  1.30823841e-02 -7.78150745e-03 -9.60194878e-03
 -1.84123665e-02  1.27585577e-02 -4.69037259e-05 -1.35069713e-02
 -6.37013745e-03 -1.20797837e-02 -1.41088944e-02  2.52259476e-03
  6.52840175e-03  9.73209925e-03  7.03033246e-03  1.65070705e-02
 -1.36047797e-02 -2.41300259e-02 -4.14960831e-03  9.05248150e-03
 -6.98380871e-03  6.59725955e-03 -6.50072051e-03 -2.00729184e-02
 -2.49280385e-03  1.11750811e-02 -1.06941140e-03 -1.77422557e-02
 -1.16230547e-02 -1.76005997e-02  2.76880106e-03 -1.49891870e-02
 -7.07289809e-03 -8.20680056e-03 -1.22557217e-02 -1.37047842e-02
  1.16554750e-02  1.81356501e-02  9.18149482e-04 -1.10650770e-02
 -1.43405227e-02 -2.76264083e-02  5.18427836e-03 -2.77265739e-02
 -1.57111287e-02  8.64821952e-03  6.57852832e-03 -1.90545954e-02
 -1.59664098e-02 -1.14020444e-02  9.14484262e-03 -8.08283221e-03
 -1.72602050e-02  3.48420814e-03 -4.60387673e-03 -2.01151270e-04
  1.07651016e-04 -1.26893912e-02 -5.49750216e-03 -3.72190564e-03
  1.83362025e-03  3.44453962e-03 -2.33167037e-02 -1.24788480e-02
  4.09347937e-03 -6.43623713e-03  2.34551728e-03  1.34170242e-02
  1.86751876e-02 -3.51073220e-03  1.63328135e-03 -1.14736483e-02
 -1.23149669e-02 -3.70140560e-03  1.04940205e-04 -9.43480339e-03
  9.87405889e-04  3.24744149e-03  7.33840233e-03 -6.44651521e-03
  4.88867005e-03 -9.96737182e-03 -1.03974296e-02 -5.79082360e-03
  1.20278094e-02 -2.15523373e-02 -9.85979848e-03 -5.88756986e-03
 -1.45099200e-02  3.84026184e-03 -2.47748457e-02 -1.14543587e-02
  1.43875489e-02  3.14185908e-03  1.13108121e-02 -4.64759208e-03
 -1.21356510e-02 -1.35527560e-02  2.55811983e-03 -1.62899552e-03
 -2.32008658e-03 -1.23813255e-02  1.11965730e-03 -3.72176338e-03
 -6.02938328e-03  1.04931472e-02 -4.26386530e-03 -4.59401030e-03
 -7.27963820e-03 -6.15091436e-03 -1.07463850e-02  3.08715506e-03
 -9.17970948e-03  6.08366635e-03  1.03775868e-02  1.04434444e-02
 -1.33818146e-02  9.86199733e-03 -4.02385229e-03  1.32603385e-02
 -3.06777991e-02 -3.39425215e-03 -2.61159465e-02  1.43714696e-02
 -3.79346870e-03 -1.59538966e-02 -8.37942958e-03 -1.10443523e-02
 -1.80545077e-02 -6.61893189e-03 -1.12874983e-02 -9.91554465e-04
  3.78255267e-03 -8.50189291e-03  7.27539184e-03 -1.14690680e-02
 -2.80646584e-03  1.02718882e-02 -4.46224399e-03  9.34380852e-03
  3.73519794e-03  7.51596875e-03  6.63213944e-03 -7.62287527e-03
  1.52904238e-03 -2.09066644e-02  3.11483722e-03 -1.30207706e-02
 -1.54785998e-02 -2.50809155e-02 -8.17032065e-03 -8.10459722e-03
 -4.23537148e-03  1.80406570e-02 -2.27027130e-03 -2.83195870e-03
 -2.30616555e-02 -1.92646869e-02  2.02047476e-03 -2.28400920e-02
  1.10762278e-02 -1.13689294e-03 -1.07884333e-02 -1.13771018e-02
 -2.59205308e-02  1.06050046e-02 -7.17701530e-03 -1.21091027e-03
  1.48207033e-02 -4.95085120e-03 -1.33851878e-02  1.49651002e-02
 -6.57248776e-03 -2.12063454e-02 -5.36991609e-03 -2.28645047e-03
 -1.63485147e-02  1.00762350e-02  4.86479187e-03  8.81347526e-03
  6.25695614e-03  1.42968101e-02 -2.30331365e-02 -6.51140790e-03
 -2.32502725e-02  9.16567724e-03 -1.41219534e-02  1.05039645e-02
 -1.87763683e-02 -7.60778924e-03 -1.68385648e-03 -5.77114755e-04
 -3.53712961e-03 -9.06302501e-03 -1.55865746e-02 -5.44504588e-03
 -1.25234863e-02 -3.96710355e-04 -7.85806589e-03  3.51648591e-03
  6.07289234e-03 -1.75967645e-02  1.36001762e-02  1.18106222e-02
 -2.08387356e-02 -1.70627069e-02  3.32275475e-03  1.58763584e-02
 -4.52821376e-03  2.46142299e-04 -2.61032465e-03  2.01733224e-03
 -1.23553881e-02 -3.89919896e-03  2.11508991e-03 -1.21723674e-02
 -1.30628627e-02  3.32279596e-03  7.32440827e-03  6.96313987e-03
 -4.50513791e-03  9.93838068e-03 -1.68784941e-03 -1.39244385e-02
  2.12910050e-03  9.06866696e-03 -1.06674535e-02 -2.85205408e-03
 -6.99215475e-03 -7.26943184e-03 -3.95882828e-03  1.77394963e-04
  1.47004076e-03 -7.96746369e-03 -1.98394358e-02 -1.81126744e-02
  4.37806593e-03  4.90889186e-03  5.13295503e-03 -7.46680889e-03
  1.07270421e-03 -4.65396466e-03 -1.03819240e-02 -1.30297877e-02
 -9.92701203e-03 -2.04866827e-02 -8.70787539e-03  1.36065381e-02
 -1.41819045e-02  1.14793668e-03  3.70342284e-03 -7.14368047e-03
 -1.33609201e-03  1.81305851e-03 -5.24039939e-03 -1.16088018e-02]"
"[[-0.08743911 -0.10084324  0.06491725 ...  0.03826215  0.14041056
   0.02310558]
 [-0.07858445  0.00476807  0.05869886 ...  0.13616265  0.01122893
  -0.0966749 ]
 [-0.06037407  0.00129318 -0.12030603 ...  0.16389874 -0.01367659
  -0.11068146]
 ...
 [-0.1112145   0.04230158  0.10545147 ... -0.12653896 -0.08679499
  -0.10412382]
 [-0.05337663 -0.0133213   0.19639383 ...  0.01435801 -0.05583199
  -0.07161667]
 [ 0.01450333 -0.06713561 -0.01036651 ... -0.05914137  0.14514472
  -0.00951538]]"
"[ 0.00936192  0.00214671  0.01054761 -0.0096429   0.00411759 -0.00431393
  0.01351745 -0.00053085  0.01579712  0.00426195 -0.00626318  0.00835769
  0.01624683  0.00132395  0.01111503 -0.00483417  0.01201104  0.00646183
  0.00661367 -0.00524124  0.00267239 -0.00255533  0.0273229   0.00091088
  0.0127714   0.01159517  0.02456214  0.00239911  0.01053702  0.00886096
  0.00176584  0.02060279 -0.00463289  0.00613572 -0.00487263  0.01698567
 -0.00182922  0.00231401 -0.00404979  0.00524375  0.00798088  0.00493329
 -0.00763846 -0.00449292  0.00297438  0.00217219  0.00486434  0.00421322
  0.021414    0.00209633 -0.00822409  0.01391102  0.00241432  0.01175626
  0.00151479 -0.00409797  0.0161669   0.00635463  0.0001991  -0.00122024
  0.00736266 -0.00305903  0.0044729   0.00026849]"
"[[-0.16602147 -0.19373581 -0.07095493 ...  0.18180157 -0.06741074
   0.18039072]
 [-0.04261609  0.18781583  0.18451513 ...  0.00475777  0.08484933
   0.02613576]
 [ 0.2038695  -0.00671159 -0.0582936  ...  0.16095674  0.08403711
   0.15241775]
 ...
 [-0.02935066  0.07637519  0.15143755 ... -0.09547459  0.12884596
  -0.12480816]
 [ 0.1919131  -0.06431136 -0.05115518 ... -0.07202731  0.09852687
  -0.00219564]
 [ 0.16371182 -0.08059384  0.19488971 ... -0.1273024   0.06191121
   0.1247201 ]]"
"[ 0.00558111  0.00245782 -0.00292289  0.01678243  0.0015219   0.0091073
 -0.01533281 -0.00299006  0.01481206 -0.00418234 -0.01992573  0.00783314
 -0.00078047 -0.00854244 -0.02824654  0.00844447 -0.00566904  0.02287931
 -0.00274114 -0.005262   -0.00597062 -0.00630993  0.00018789  0.02345379
 -0.00316254  0.01318605 -0.00663235  0.00182346  0.0235598  -0.02414561
  0.01839322  0.01415309 -0.01336758 -0.02121814 -0.01006977 -0.00230725
 -0.00430342  0.01262829  0.01918675  0.02232794  0.03522649  0.02225147
  0.00293519  0.0108752   0.00750821 -0.00474458  0.01323755  0.00680714
  0.01160106  0.01274218  0.00259842  0.00019867 -0.00830665 -0.02069522
  0.00798372 -0.00945285  0.01286813  0.00519078  0.00918103  0.01793588
  0.02404073 -0.01089439 -0.00564198 -0.00531512 -0.02528264  0.02697382
  0.00670995 -0.01312547  0.00845813 -0.01003215 -0.01541963 -0.02350985
  0.01305606 -0.00505545  0.02222527  0.01645874 -0.00291539 -0.00812128
  0.0021403  -0.01132482 -0.00966729  0.00204586 -0.02824873 -0.02036817
 -0.00136269 -0.0049987   0.01947798 -0.00407015  0.00174965 -0.0168889
 -0.00760793  0.0160582  -0.01789862  0.01293972 -0.00103704  0.01146423
  0.01158807 -0.01497688 -0.01522596  0.01553436 -0.00139856 -0.01144521
 -0.02581223 -0.00902143  0.02219395  0.00491677 -0.02671915  0.00156552
 -0.01488794 -0.00881379 -0.0028792  -0.00103652  0.00610538  0.00881138
  0.00988785 -0.01008256  0.00103209 -0.0154231   0.0104608   0.01005091
 -0.00323921  0.00396272  0.00418972  0.00743535 -0.00973282  0.00838598
  0.00892738 -0.00416767]"
"[[-0.12017737  0.06810839 -0.04794169 ... -0.18161616 -0.01622517
   0.03852705]
 [ 0.00586901 -0.01222999  0.0751475  ... -0.06640604  0.17423888
  -0.10568696]
 [ 0.20339605 -0.06313202 -0.06590794 ... -0.00722593  0.19370854
  -0.08873858]
 ...
 [-0.14122537  0.06947026 -0.18409464 ... -0.13850981  0.054152
   0.05645648]
 [-0.00539608  0.15954539  0.0006975  ...  0.05451416  0.11897752
  -0.06761945]
 [-0.01998528 -0.08469015 -0.05754814 ...  0.03542111 -0.15425375
  -0.0197438 ]]"
"[-4.61653853e-03  7.61660514e-03  1.75463818e-02  1.38856880e-02
  4.54697944e-03 -1.92689970e-02 -1.82655104e-03 -1.17689911e-02
 -1.45512354e-02 -5.08465944e-03  3.58573832e-02  1.41901933e-02
 -1.59786716e-02 -2.13417634e-02  6.36578910e-03 -3.68538895e-04
 -2.37607919e-02 -6.39465917e-03  8.99296533e-03  1.57654379e-03
 -1.43098878e-02  1.49965985e-02 -1.12700975e-02  4.42855339e-03
  2.06335424e-03  3.48773897e-02  3.79287116e-02 -5.50608803e-03
 -4.67014080e-03  3.77857266e-03 -6.57276763e-03 -9.47324000e-03
  1.28531195e-02  2.98192035e-02 -6.00847183e-03  2.20364332e-02
  1.81054380e-02 -2.78426392e-04 -1.95229240e-02 -2.23666728e-02
 -6.37351535e-03 -1.66920722e-02 -1.02470974e-02 -6.39474811e-03
  8.97529535e-03  1.52239483e-02  3.10552381e-02  9.60957725e-03
  3.22891399e-02  9.10820626e-03  1.56809781e-02  1.21320421e-02
  1.39419746e-03 -1.48862815e-02 -5.04920352e-03 -1.56520063e-03
  2.39779837e-02 -3.79032991e-03 -8.45643878e-03 -1.40277641e-02
  2.41793264e-02  1.06558017e-02  2.80958004e-02  1.83080081e-02
 -6.57326356e-03 -1.79963477e-03 -2.68058144e-02  8.88796058e-04
  1.26364296e-02 -1.68574322e-02 -2.12532165e-03 -1.84291247e-02
 -1.36919105e-02  1.56849138e-02  1.88648161e-02 -7.84966032e-05
 -1.87158249e-02  4.56804270e-03 -6.33683987e-03 -1.17555773e-02
 -3.01438253e-02 -8.91755044e-04  2.03874446e-02 -5.44721493e-03
 -1.12432232e-02  1.19429026e-02 -7.90535100e-03 -9.48706549e-03
  8.37141927e-03  2.19800789e-02 -1.96651854e-02  1.26110557e-02
  3.46791843e-04 -4.89766756e-03  6.25528686e-04 -7.89960008e-03
  1.01042241e-02  2.10090987e-02 -8.24873149e-03  5.94520709e-03
  2.20057275e-02 -7.16783386e-03 -3.93830519e-03 -1.25547322e-02
  5.50671853e-03 -1.19093747e-03  1.65212969e-03  9.16632451e-03
 -1.40315033e-02 -2.07160357e-02 -1.19827585e-02 -2.81691570e-02
 -1.49782794e-02 -1.04520153e-02 -5.18925767e-03 -9.34234727e-03
  2.44951099e-02 -6.54097646e-03  4.44460288e-03 -4.24080007e-02
  2.34237616e-03  1.91872772e-02 -2.55621318e-02  4.62470995e-03
 -7.22862175e-03  1.54249533e-03 -4.23285784e-03  1.62451845e-02]"
"[[ 0.13419196  0.01740579  0.24105991 ...  0.275069   -0.21124396
  -0.1709444 ]
 [-0.2226003  -0.03619591  0.2472426  ...  0.18618397  0.09815123
   0.08557022]
 [-0.0207234   0.04760373 -0.11080074 ...  0.23444478  0.08333096
   0.16005945]
 ...
 [ 0.08196438  0.17613615 -0.0068994  ...  0.13115211 -0.08163451
   0.14619464]
 [-0.15586899 -0.0602311   0.11167271 ...  0.19678728 -0.05589994
  -0.09800403]
 [-0.15056162  0.12808782  0.12901254 ... -0.09972525 -0.0032862
  -0.06808191]]"
"[ 0.00811659  0.01858651 -0.00089197 -0.00161657 -0.01843765  0.00538378
  0.00830374  0.00048784 -0.01707657 -0.03307375  0.00525716  0.01074502
  0.00744377 -0.0034236  -0.00142148  0.00282363 -0.00791414  0.00174854
  0.01964899  0.02594606 -0.0080681  -0.00948283  0.00527674  0.00581145
 -0.01283555]"
